digraph Tree {
node [shape=box] ;
0 [label="distance <= 4.468\nmse = 85.713\nsamples = 666\nvalue = 11.088"] ;
1 [label="distance <= 1.877\nmse = 33.727\nsamples = 625\nvalue = 9.389"] ;
0 -> 1 [labeldistance=2.5, labelangle=45, headlabel="True"] ;
2 [label="distance <= 0.817\nmse = 21.184\nsamples = 524\nvalue = 8.125"] ;
1 -> 2 ;
3 [label="distance <= 0.064\nmse = 18.673\nsamples = 302\nvalue = 6.875"] ;
2 -> 3 ;
4 [label="mse = 128.582\nsamples = 26\nvalue = 12.036"] ;
3 -> 4 ;
5 [label="distance <= 0.415\nmse = 5.574\nsamples = 276\nvalue = 6.389"] ;
3 -> 5 ;
6 [label="distance <= 0.256\nmse = 2.802\nsamples = 91\nvalue = 5.389"] ;
5 -> 6 ;
7 [label="distance <= 0.188\nmse = 1.814\nsamples = 42\nvalue = 4.814"] ;
6 -> 7 ;
8 [label="mse = 2.687\nsamples = 19\nvalue = 5.2"] ;
7 -> 8 ;
9 [label="mse = 0.867\nsamples = 23\nvalue = 4.496"] ;
7 -> 9 ;
10 [label="month <= 9.5\nmse = 3.124\nsamples = 49\nvalue = 5.882"] ;
6 -> 10 ;
11 [label="day <= 16.5\nmse = 1.53\nsamples = 39\nvalue = 5.446"] ;
10 -> 11 ;
12 [label="mse = 1.542\nsamples = 23\nvalue = 5.883"] ;
11 -> 12 ;
13 [label="mse = 0.845\nsamples = 16\nvalue = 4.819"] ;
11 -> 13 ;
14 [label="mse = 5.714\nsamples = 10\nvalue = 7.58"] ;
10 -> 14 ;
15 [label="year <= 2012.5\nmse = 6.205\nsamples = 185\nvalue = 6.88"] ;
5 -> 15 ;
16 [label="distance <= 0.782\nmse = 5.85\nsamples = 121\nvalue = 6.499"] ;
15 -> 16 ;
17 [label="month <= 4.5\nmse = 5.098\nsamples = 111\nvalue = 6.34"] ;
16 -> 17 ;
18 [label="mse = 2.636\nsamples = 38\nvalue = 5.692"] ;
17 -> 18 ;
19 [label="mse = 6.048\nsamples = 73\nvalue = 6.678"] ;
17 -> 19 ;
20 [label="mse = 10.812\nsamples = 10\nvalue = 8.26"] ;
16 -> 20 ;
21 [label="day <= 26.5\nmse = 6.08\nsamples = 64\nvalue = 7.602"] ;
15 -> 21 ;
22 [label="distance <= 0.623\nmse = 5.664\nsamples = 53\nvalue = 7.302"] ;
21 -> 22 ;
23 [label="mse = 7.389\nsamples = 29\nvalue = 7.724"] ;
22 -> 23 ;
24 [label="mse = 3.102\nsamples = 24\nvalue = 6.792"] ;
22 -> 24 ;
25 [label="mse = 5.566\nsamples = 11\nvalue = 9.045"] ;
21 -> 25 ;
26 [label="year <= 2012.5\nmse = 19.583\nsamples = 222\nvalue = 9.825"] ;
2 -> 26 ;
27 [label="left_boro <= 0.5\nmse = 9.367\nsamples = 143\nvalue = 9.015"] ;
26 -> 27 ;
28 [label="distance <= 1.708\nmse = 7.459\nsamples = 133\nvalue = 8.703"] ;
27 -> 28 ;
29 [label="year <= 2011.5\nmse = 5.515\nsamples = 118\nvalue = 8.281"] ;
28 -> 29 ;
30 [label="distance <= 1.232\nmse = 4.829\nsamples = 92\nvalue = 7.945"] ;
29 -> 30 ;
31 [label="mse = 4.674\nsamples = 59\nvalue = 7.385"] ;
30 -> 31 ;
32 [label="mse = 3.544\nsamples = 33\nvalue = 8.945"] ;
30 -> 32 ;
33 [label="mse = 6.119\nsamples = 26\nvalue = 9.473"] ;
29 -> 33 ;
34 [label="mse = 10.351\nsamples = 15\nvalue = 12.02"] ;
28 -> 34 ;
35 [label="mse = 16.188\nsamples = 10\nvalue = 13.17"] ;
27 -> 35 ;
36 [label="distance <= 0.917\nmse = 34.738\nsamples = 79\nvalue = 11.291"] ;
26 -> 36 ;
37 [label="mse = 179.14\nsamples = 10\nvalue = 14.6"] ;
36 -> 37 ;
38 [label="distance <= 1.046\nmse = 11.993\nsamples = 69\nvalue = 10.812"] ;
36 -> 38 ;
39 [label="mse = 0.922\nsamples = 10\nvalue = 7.55"] ;
38 -> 39 ;
40 [label="day <= 12.5\nmse = 11.761\nsamples = 59\nvalue = 11.364"] ;
38 -> 40 ;
41 [label="mse = 16.111\nsamples = 26\nvalue = 12.346"] ;
40 -> 41 ;
42 [label="month <= 8.5\nmse = 6.977\nsamples = 33\nvalue = 10.591"] ;
40 -> 42 ;
43 [label="mse = 8.455\nsamples = 23\nvalue = 11.043"] ;
42 -> 43 ;
44 [label="mse = 2.022\nsamples = 10\nvalue = 9.55"] ;
42 -> 44 ;
45 [label="distance <= 2.827\nmse = 47.479\nsamples = 101\nvalue = 15.949"] ;
1 -> 45 ;
46 [label="year <= 2012.5\nmse = 21.23\nsamples = 69\nvalue = 13.734"] ;
45 -> 46 ;
47 [label="hour <= 13.5\nmse = 9.549\nsamples = 46\nvalue = 11.839"] ;
46 -> 47 ;
48 [label="mse = 9.584\nsamples = 25\nvalue = 12.796"] ;
47 -> 48 ;
49 [label="mse = 7.12\nsamples = 21\nvalue = 10.7"] ;
47 -> 49 ;
50 [label="mse = 23.05\nsamples = 23\nvalue = 17.523"] ;
46 -> 50 ;
51 [label="year <= 2011.5\nmse = 70.69\nsamples = 32\nvalue = 20.725"] ;
45 -> 51 ;
52 [label="mse = 12.294\nsamples = 10\nvalue = 15.54"] ;
51 -> 52 ;
53 [label="mse = 79.459\nsamples = 22\nvalue = 23.082"] ;
51 -> 53 ;
54 [label="distance <= 11.436\nmse = 163.867\nsamples = 41\nvalue = 36.979"] ;
0 -> 54 [labeldistance=2.5, labelangle=-45, headlabel="False"] ;
55 [label="mse = 32.525\nsamples = 26\nvalue = 29.958"] ;
54 -> 55 ;
56 [label="mse = 157.989\nsamples = 15\nvalue = 49.148"] ;
54 -> 56 ;
}